{"graph_0": {"_type": "graph-file", "path": "media/graph/graph_0_summary_b74d7c90.graph.json", "sha256": "b74d7c9026c07d67eab532d9cea3e2fa1f0ba8f08b107a2a78ac2fd4a09753a3", "size": 1857}, "exs/train": 800, "clen/train": 30.3375, "ctrunc/train": 0.09375, "ctrunclen/train": 2.43, "llen/train": 16.1425, "ltrunc/train": 0.00375, "ltrunclen/train": 0.05625, "loss/train": 6.082016650386712, "ppl/train": 437.9114190829861, "token_acc/train": 0.21687776828036368, "token_em/train": 0.0, "exps/train": 271.035028851523, "ltpb/train": 257.38, "ltps/train": 4360.049578870077, "ctpb/train": 446.52, "ctps/train": 7564.212511310934, "tpb/train": 703.9, "tps/train": 11924.364532150223, "ups/train": 16.944131966234092, "gnorm/train": 1.4028133606910707, "clip/train": 1.0, "lr/train": 1.0, "gpu_mem/train": 0.024611651324022817, "total_train_updates/train": 4550, "custom_step": 4550, "_runtime": 296, "_timestamp": 1619838866, "_step": 90, "gradients/output.bias": {"_type": "histogram", "values": [1.0, 0.0, 0.0, 0.0, 0.0, 0.0, 0.0, 0.0, 0.0, 0.0, 0.0, 0.0, 0.0, 0.0, 0.0, 0.0, 1.0, 0.0, 0.0, 0.0, 0.0, 1.0, 0.0, 0.0, 0.0, 0.0, 0.0, 1.0, 0.0, 0.0, 1.0, 0.0, 0.0, 8.0, 0.0, 2.0, 0.0, 2.0, 0.0, 58.0, 15.0, 1.0, 4.0, 2.0, 1.0, 1.0, 22303.0, 5.0, 1.0, 3.0, 0.0, 1.0, 0.0, 0.0, 1.0, 0.0, 2.0, 2.0, 0.0, 0.0, 0.0, 1.0, 0.0, 1.0], "bins": [-0.04034648463129997, -0.039472561329603195, -0.03859863430261612, -0.03772471100091934, -0.036850787699222565, -0.03597686439752579, -0.03510294109582901, -0.034229014068841934, -0.03335509076714516, -0.03248116746544838, -0.031607240438461304, -0.030733317136764526, -0.02985939383506775, -0.02898547053337097, -0.028111545369029045, -0.02723762020468712, -0.02636369690299034, -0.025489773601293564, -0.024615848436951637, -0.02374192327260971, -0.022867999970912933, -0.021994076669216156, -0.02112015150487423, -0.020246226340532303, -0.019372303038835526, -0.018498379737138748, -0.01762445457279682, -0.016750529408454895, -0.015876606106758118, -0.015002681873738766, -0.014128757640719414, -0.013254833407700062, -0.012380908243358135, -0.011506984010338783, -0.010633059777319431, -0.00975913554430008, -0.008885211311280727, -0.008011287078261375, -0.0071373628452420235, -0.0062634386122226715, -0.0053895143792033195, -0.004515590146183968, -0.0036416659131646156, -0.0027677416801452637, -0.0018938174471259117, -0.0010198932141065598, -0.0001459689810872078, 0.0007279552519321442, 0.0016018794849514961, 0.002475803717970848, 0.0033497279509902, 0.004223652184009552, 0.005097576417028904, 0.005971500650048256, 0.006845424883067608, 0.00771934911608696, 0.008593273349106312, 0.009467197582125664, 0.010341121815145016, 0.011215046048164368, 0.01208897028118372, 0.012962894514203072, 0.013836818747222424, 0.014710742980241776, 0.015584667213261127]}, "gradients/decoder.attention.attn_combine.weight": {"_type": "histogram", "values": [1.0, 0.0, 0.0, 0.0, 0.0, 0.0, 0.0, 0.0, 1.0, 1.0, 0.0, 2.0, 5.0, 2.0, 5.0, 11.0, 11.0, 21.0, 21.0, 32.0, 51.0, 63.0, 91.0, 137.0, 193.0, 219.0, 331.0, 390.0, 612.0, 782.0, 1063.0, 1389.0, 1868.0, 2627.0, 3744.0, 4721.0, 4051.0, 2806.0, 1896.0, 1411.0, 1034.0, 870.0, 600.0, 427.0, 356.0, 252.0, 191.0, 109.0, 96.0, 72.0, 60.0, 40.0, 35.0, 20.0, 11.0, 8.0, 9.0, 8.0, 4.0, 0.0, 5.0, 0.0, 1.0, 2.0], "bins": [-0.043840352445840836, -0.04260844364762306, -0.04137653484940529, -0.040144626051187515, -0.03891271725296974, -0.03768080472946167, -0.036448895931243896, -0.03521698713302612, -0.03398507833480835, -0.032753169536590576, -0.0315212607383728, -0.03028935194015503, -0.029057441279292107, -0.027825532481074333, -0.02659362368285656, -0.025361713021993637, -0.024129806086421013, -0.02289789728820324, -0.021665988489985466, -0.020434077829122543, -0.01920216903090477, -0.017970260232686996, -0.016738351434469223, -0.015506441704928875, -0.014274532906711102, -0.013042624108493328, -0.01181071437895298, -0.010578805580735207, -0.009346896782517433, -0.008114987052977085, -0.006883078254759312, -0.005651168525218964, -0.00441925972700119, -0.0031873504631221294, -0.0019554414320737123, -0.0007235324010252953, 0.0005083768628537655, 0.0017402861267328262, 0.0029721949249505997, 0.004204104654490948, 0.005436013452708721, 0.006667922716587782, 0.007899831980466843, 0.009131740778684616, 0.01036364957690239, 0.011595559306442738, 0.012827468104660511, 0.014059377834200859, 0.015291286632418633, 0.016523195430636406, 0.01775510422885418, 0.018987014889717102, 0.020218923687934875, 0.02145083248615265, 0.022682741284370422, 0.023914650082588196, 0.02514655888080597, 0.026378467679023743, 0.027610376477241516, 0.02884228527545929, 0.030074195936322212, 0.031306102871894836, 0.03253801167011261, 0.03376992419362068, 0.035001832991838455]}, "gradients/decoder.rnn.weight_ih_l0": {"_type": "histogram", "values": [1.0, 1.0, 0.0, 1.0, 8.0, 10.0, 4.0, 7.0, 10.0, 18.0, 32.0, 43.0, 57.0, 71.0, 88.0, 127.0, 170.0, 224.0, 321.0, 376.0, 482.0, 647.0, 976.0, 1436.0, 2328.0, 4462.0, 7836.0, 11459.0, 12223.0, 8806.0, 4983.0, 2718.0, 1576.0, 1020.0, 742.0, 551.0, 465.0, 308.0, 223.0, 189.0, 146.0, 106.0, 70.0, 45.0, 39.0, 35.0, 28.0, 16.0, 17.0, 7.0, 10.0, 8.0, 5.0, 1.0, 0.0, 0.0, 2.0, 0.0, 1.0, 0.0, 0.0, 0.0, 0.0, 1.0], "bins": [-0.02537948079407215, -0.02447708137333393, -0.02357468195259571, -0.02267228253185749, -0.02176988311111927, -0.02086748369038105, -0.01996508426964283, -0.01906268484890461, -0.01816028542816639, -0.01725788600742817, -0.01635548658668995, -0.015453087165951729, -0.014550687745213509, -0.013648288324475288, -0.012745888903737068, -0.011843489482998848, -0.010941090062260628, -0.010038690641522408, -0.009136291220784187, -0.008233891800045967, -0.007331492379307747, -0.006429092958569527, -0.0055266935378313065, -0.004624294117093086, -0.003721894696354866, -0.002819495275616646, -0.0019170958548784256, -0.0010146964341402054, -0.00011229701340198517, 0.000790102407336235, 0.0016925018280744553, 0.0025949012488126755, 0.003497302532196045, 0.004399701952934265, 0.005302101373672485, 0.006204500794410706, 0.007106900215148926, 0.008009299635887146, 0.008911699056625366, 0.009814098477363586, 0.010716497898101807, 0.011618897318840027, 0.012521296739578247, 0.013423696160316467, 0.014326095581054688, 0.015228495001792908, 0.016130894422531128, 0.017033293843269348, 0.01793569326400757, 0.01883809268474579, 0.01974049210548401, 0.02064289152622223, 0.02154529094696045, 0.02244769036769867, 0.02335008978843689, 0.02425248920917511, 0.02515488862991333, 0.02605728805065155, 0.02695968747138977, 0.02786208689212799, 0.02876448631286621, 0.02966688573360443, 0.03056928515434265, 0.03147168457508087, 0.03237408399581909]}, "gradients/decoder.rnn.bias_hh_l0": {"_type": "histogram", "values": [1.0, 1.0, 0.0, 0.0, 0.0, 0.0, 0.0, 2.0, 1.0, 1.0, 2.0, 2.0, 1.0, 0.0, 1.0, 1.0, 2.0, 2.0, 1.0, 4.0, 5.0, 1.0, 1.0, 2.0, 4.0, 3.0, 9.0, 7.0, 21.0, 23.0, 45.0, 56.0, 52.0, 49.0, 53.0, 38.0, 26.0, 19.0, 13.0, 7.0, 8.0, 5.0, 5.0, 5.0, 0.0, 4.0, 6.0, 3.0, 3.0, 4.0, 1.0, 3.0, 2.0, 1.0, 0.0, 0.0, 2.0, 0.0, 1.0, 0.0, 1.0, 0.0, 1.0, 1.0], "bins": [-0.017839087173342705, -0.017297623679041862, -0.01675616018474102, -0.016214696690440178, -0.015673231333494186, -0.015131768770515919, -0.014590304344892502, -0.01404884085059166, -0.013507377356290817, -0.012965913861989975, -0.012424450367689133, -0.011882985942065716, -0.011341522447764874, -0.010800058953464031, -0.010258594527840614, -0.009717131033539772, -0.00917566753923893, -0.008634204044938087, -0.008092740550637245, -0.007551276125013828, -0.007009812630712986, -0.006468349136412144, -0.005926885176450014, -0.0053854212164878845, -0.004843957722187042, -0.0043024942278862, -0.0037610302679240704, -0.0032195665407925844, -0.0026781028136610985, -0.0021366390865296125, -0.0015951753593981266, -0.0010537116322666407, -0.000512249767780304, 2.9213959351181984e-05, 0.0005706776864826679, 0.0011121414136141539, 0.0016536051407456398, 0.0021950688678771257, 0.0027365325950086117, 0.0032779963221400976, 0.0038194600492715836, 0.004360923543572426, 0.0049023875035345554, 0.005443851463496685, 0.005985314957797527, 0.00652677845209837, 0.007068242412060499, 0.007609706372022629, 0.008151169866323471, 0.008692633360624313, 0.009234096854925156, 0.009775561280548573, 0.010317024774849415, 0.010858488269150257, 0.011399952694773674, 0.011941416189074516, 0.012482879683375359, 0.0130243431776762, 0.013565806671977043, 0.01410727109760046, 0.014648734591901302, 0.015190198086202145, 0.01573166251182556, 0.016273126006126404, 0.016814589500427246]}, "gradients/decoder.rnn.weight_ih_l1": {"_type": "histogram", "values": [1.0, 0.0, 0.0, 0.0, 0.0, 2.0, 4.0, 4.0, 4.0, 3.0, 8.0, 18.0, 20.0, 36.0, 37.0, 52.0, 74.0, 126.0, 181.0, 230.0, 321.0, 465.0, 546.0, 680.0, 895.0, 1103.0, 1686.0, 5122.0, 30275.0, 15436.0, 2602.0, 1320.0, 973.0, 791.0, 615.0, 501.0, 359.0, 285.0, 220.0, 143.0, 122.0, 66.0, 60.0, 48.0, 28.0, 18.0, 17.0, 8.0, 7.0, 10.0, 4.0, 1.0, 3.0, 0.0, 1.0, 1.0, 1.0, 0.0, 0.0, 2.0, 0.0, 0.0, 0.0, 1.0], "bins": [-0.025104623287916183, -0.02423255890607834, -0.023360492661595345, -0.0224884282797575, -0.021616363897919655, -0.02074429765343666, -0.019872233271598816, -0.01900016888976097, -0.018128104507923126, -0.01725604012608528, -0.016383973881602287, -0.015511909499764442, -0.014639845117926598, -0.013767779804766178, -0.012895714491605759, -0.012023650109767914, -0.011151584796607494, -0.010279519483447075, -0.00940745510160923, -0.00853538978844881, -0.007663325406610966, -0.006791260093450546, -0.005919195245951414, -0.005047130398452282, -0.00417506555095315, -0.0033030007034540176, -0.0024309358559548855, -0.0015588707756251097, -0.0006868059281259775, 0.0001852591522037983, 0.0010573239997029305, 0.0019293888472020626, 0.0028014536947011948, 0.003673518542200327, 0.004545583389699459, 0.0054176487028598785, 0.006289713084697723, 0.007161778397858143, 0.008033843711018562, 0.008905908092856407, 0.009777972474694252, 0.010650037787854671, 0.011522102169692516, 0.012394167482852936, 0.01326623186469078, 0.0141382971778512, 0.01501036249101162, 0.015882426872849464, 0.01675449311733246, 0.017626557499170303, 0.018498623743653297, 0.019370688125491142, 0.020242752507328987, 0.02111481875181198, 0.021986883133649826, 0.02285894751548767, 0.023731011897325516, 0.02460307627916336, 0.025475142523646355, 0.0263472069054842, 0.027219271287322044, 0.02809133753180504, 0.028963401913642883, 0.029835466295480728, 0.030707530677318573]}, "gradients/decoder.rnn.weight_hh_l0": {"_type": "histogram", "values": [1.0, 1.0, 0.0, 0.0, 0.0, 1.0, 1.0, 0.0, 0.0, 0.0, 1.0, 2.0, 4.0, 6.0, 12.0, 16.0, 18.0, 27.0, 37.0, 46.0, 68.0, 91.0, 123.0, 184.0, 213.0, 270.0, 374.0, 499.0, 661.0, 893.0, 1399.0, 2439.0, 4868.0, 9106.0, 13474.0, 12552.0, 7830.0, 3899.0, 1963.0, 1146.0, 780.0, 623.0, 443.0, 344.0, 280.0, 212.0, 170.0, 87.0, 99.0, 81.0, 57.0, 35.0, 30.0, 18.0, 21.0, 12.0, 6.0, 4.0, 2.0, 3.0, 1.0, 2.0, 0.0, 1.0], "bins": [-0.007554150186479092, -0.007337383925914764, -0.00712061719968915, -0.006903850939124823, -0.006687084678560495, -0.006470317952334881, -0.006253551691770554, -0.006036785431206226, -0.005820019170641899, -0.005603252910077572, -0.005386486183851957, -0.00516971992328763, -0.004952953662723303, -0.004736186936497688, -0.004519420675933361, -0.004302654415369034, -0.004085887689143419, -0.0038691211957484484, -0.003652354935184121, -0.0034355884417891502, -0.003218822181224823, -0.003002055687829852, -0.002785289194434881, -0.002568522933870554, -0.002351756440475583, -0.002134989947080612, -0.001918223686516285, -0.001701457193121314, -0.001484690816141665, -0.001267924439162016, -0.001051157945767045, -0.000834391568787396, -0.0006176251918077469, -0.00040085878572426736, -0.00018409237964078784, 3.267405554652214e-05, 0.0002494404325261712, 0.0004662068095058203, 0.0006829733029007912, 0.0008997396798804402, 0.0011165060568600893, 0.0013332724338397384, 0.0015500388108193874, 0.0017668053042143583, 0.0019835717976093292, 0.0022003380581736565, 0.0024171045515686274, 0.0026338710449635983, 0.0028506373055279255, 0.0030674037989228964, 0.0032841700594872236, 0.0035009365528821945, 0.0037177028134465218, 0.003934469074010849, 0.0041512358002364635, 0.004368002060800791, 0.004584768787026405, 0.004801535047590733, 0.005018301773816347, 0.005235068034380674, 0.005451834294945002, 0.005668601021170616, 0.005885367281734943, 0.006102133542299271, 0.006318899802863598]}, "gradients/decoder.rnn.bias_ih_l0": {"_type": "histogram", "values": [1.0, 1.0, 0.0, 0.0, 0.0, 0.0, 0.0, 2.0, 1.0, 1.0, 2.0, 2.0, 1.0, 0.0, 1.0, 1.0, 2.0, 2.0, 1.0, 4.0, 5.0, 1.0, 1.0, 2.0, 4.0, 3.0, 9.0, 7.0, 21.0, 23.0, 45.0, 56.0, 52.0, 49.0, 53.0, 38.0, 26.0, 19.0, 13.0, 7.0, 8.0, 5.0, 5.0, 5.0, 0.0, 4.0, 6.0, 3.0, 3.0, 4.0, 1.0, 3.0, 2.0, 1.0, 0.0, 0.0, 2.0, 0.0, 1.0, 0.0, 1.0, 0.0, 1.0, 1.0], "bins": [-0.017839087173342705, -0.017297623679041862, -0.01675616018474102, -0.016214696690440178, -0.015673231333494186, -0.015131768770515919, -0.014590304344892502, -0.01404884085059166, -0.013507377356290817, -0.012965913861989975, -0.012424450367689133, -0.011882985942065716, -0.011341522447764874, -0.010800058953464031, -0.010258594527840614, -0.009717131033539772, -0.00917566753923893, -0.008634204044938087, -0.008092740550637245, -0.007551276125013828, -0.007009812630712986, -0.006468349136412144, -0.005926885176450014, -0.0053854212164878845, -0.004843957722187042, -0.0043024942278862, -0.0037610302679240704, -0.0032195665407925844, -0.0026781028136610985, -0.0021366390865296125, -0.0015951753593981266, -0.0010537116322666407, -0.000512249767780304, 2.9213959351181984e-05, 0.0005706776864826679, 0.0011121414136141539, 0.0016536051407456398, 0.0021950688678771257, 0.0027365325950086117, 0.0032779963221400976, 0.0038194600492715836, 0.004360923543572426, 0.0049023875035345554, 0.005443851463496685, 0.005985314957797527, 0.00652677845209837, 0.007068242412060499, 0.007609706372022629, 0.008151169866323471, 0.008692633360624313, 0.009234096854925156, 0.009775561280548573, 0.010317024774849415, 0.010858488269150257, 0.011399952694773674, 0.011941416189074516, 0.012482879683375359, 0.0130243431776762, 0.013565806671977043, 0.01410727109760046, 0.014648734591901302, 0.015190198086202145, 0.01573166251182556, 0.016273126006126404, 0.016814589500427246]}, "gradients/decoder.rnn.bias_hh_l1": {"_type": "histogram", "values": [1.0, 2.0, 0.0, 0.0, 1.0, 1.0, 0.0, 2.0, 3.0, 0.0, 2.0, 2.0, 4.0, 4.0, 3.0, 3.0, 3.0, 4.0, 2.0, 5.0, 8.0, 20.0, 52.0, 167.0, 120.0, 42.0, 7.0, 3.0, 5.0, 3.0, 8.0, 1.0, 6.0, 2.0, 7.0, 1.0, 0.0, 2.0, 3.0, 1.0, 4.0, 0.0, 0.0, 1.0, 1.0, 2.0, 1.0, 0.0, 0.0, 0.0, 1.0, 0.0, 0.0, 0.0, 0.0, 0.0, 0.0, 1.0, 0.0, 0.0, 0.0, 0.0, 0.0, 1.0], "bins": [-0.05487706884741783, -0.05258198454976082, -0.050286900252103806, -0.04799181967973709, -0.04569673538208008, -0.043401651084423065, -0.04110656678676605, -0.03881148248910904, -0.036516398191452026, -0.03422131389379501, -0.031926229596138, -0.029631147161126137, -0.027336064726114273, -0.02504098042845726, -0.022745896130800247, -0.020450813695788383, -0.01815573126077652, -0.015860646963119507, -0.013565564528107643, -0.01127048023045063, -0.008975396864116192, -0.0066803134977817535, -0.004385229200124741, -0.002090146765112877, 0.00020493753254413605, 0.002500021131709218, 0.0047951047308743, 0.007090188562870026, 0.009385271929204464, 0.011680355295538902, 0.013975439593195915, 0.01627052202820778, 0.018565602600574493, 0.020860686898231506, 0.02315576933324337, 0.025450853630900383, 0.027745936065912247, 0.03004102036356926, 0.03233610466122627, 0.03463118523359299, 0.03692626953125, 0.03922135382890701, 0.041516438126564026, 0.04381152242422104, 0.04610660299658775, 0.048401687294244766, 0.05069677159190178, 0.052991852164268494, 0.055286940187215805, 0.05758202448487282, 0.05987710878252983, 0.062172189354896545, 0.06446727365255356, 0.06676235795021057, 0.06905744224786758, 0.0713525265455246, 0.07364761084318161, 0.07594269514083862, 0.07823777943849564, 0.08053286373615265, 0.08282794803380966, 0.08512303233146667, 0.08741810917854309, 0.0897131934762001, 0.09200827777385712]}, "gradients/decoder.rnn.bias_ih_l1": {"_type": "histogram", "values": [1.0, 2.0, 0.0, 0.0, 1.0, 1.0, 0.0, 2.0, 3.0, 0.0, 2.0, 2.0, 4.0, 4.0, 3.0, 3.0, 3.0, 4.0, 2.0, 5.0, 8.0, 20.0, 52.0, 167.0, 120.0, 42.0, 7.0, 3.0, 5.0, 3.0, 8.0, 1.0, 6.0, 2.0, 7.0, 1.0, 0.0, 2.0, 3.0, 1.0, 4.0, 0.0, 0.0, 1.0, 1.0, 2.0, 1.0, 0.0, 0.0, 0.0, 1.0, 0.0, 0.0, 0.0, 0.0, 0.0, 0.0, 1.0, 0.0, 0.0, 0.0, 0.0, 0.0, 1.0], "bins": [-0.05487706884741783, -0.05258198454976082, -0.050286900252103806, -0.04799181967973709, -0.04569673538208008, -0.043401651084423065, -0.04110656678676605, -0.03881148248910904, -0.036516398191452026, -0.03422131389379501, -0.031926229596138, -0.029631147161126137, -0.027336064726114273, -0.02504098042845726, -0.022745896130800247, -0.020450813695788383, -0.01815573126077652, -0.015860646963119507, -0.013565564528107643, -0.01127048023045063, -0.008975396864116192, -0.0066803134977817535, -0.004385229200124741, -0.002090146765112877, 0.00020493753254413605, 0.002500021131709218, 0.0047951047308743, 0.007090188562870026, 0.009385271929204464, 0.011680355295538902, 0.013975439593195915, 0.01627052202820778, 0.018565602600574493, 0.020860686898231506, 0.02315576933324337, 0.025450853630900383, 0.027745936065912247, 0.03004102036356926, 0.03233610466122627, 0.03463118523359299, 0.03692626953125, 0.03922135382890701, 0.041516438126564026, 0.04381152242422104, 0.04610660299658775, 0.048401687294244766, 0.05069677159190178, 0.052991852164268494, 0.055286940187215805, 0.05758202448487282, 0.05987710878252983, 0.062172189354896545, 0.06446727365255356, 0.06676235795021057, 0.06905744224786758, 0.0713525265455246, 0.07364761084318161, 0.07594269514083862, 0.07823777943849564, 0.08053286373615265, 0.08282794803380966, 0.08512303233146667, 0.08741810917854309, 0.0897131934762001, 0.09200827777385712]}, "gradients/decoder.rnn.weight_hh_l1": {"_type": "histogram", "values": [1.0, 0.0, 0.0, 0.0, 0.0, 0.0, 0.0, 2.0, 1.0, 2.0, 2.0, 6.0, 3.0, 14.0, 13.0, 12.0, 9.0, 24.0, 43.0, 51.0, 80.0, 123.0, 184.0, 251.0, 364.0, 556.0, 692.0, 864.0, 1095.0, 1624.0, 6065.0, 37760.0, 9081.0, 1879.0, 1239.0, 955.0, 725.0, 495.0, 433.0, 296.0, 184.0, 148.0, 79.0, 52.0, 50.0, 24.0, 24.0, 11.0, 4.0, 8.0, 2.0, 0.0, 2.0, 1.0, 1.0, 0.0, 1.0, 0.0, 0.0, 0.0, 0.0, 0.0, 0.0, 1.0], "bins": [-0.012488912791013718, -0.012093506753444672, -0.011698100715875626, -0.011302695609629154, -0.010907289572060108, -0.010511883534491062, -0.01011647842824459, -0.009721072390675545, -0.009325666353106499, -0.008930260315537453, -0.008534854277968407, -0.008139449171721935, -0.007744043134152889, -0.007348637096583843, -0.0069532315246760845, -0.006557825952768326, -0.00616241991519928, -0.005767013877630234, -0.005371608305722475, -0.004976202733814716, -0.00458079669624567, -0.004185390658676624, -0.0037899850867688656, -0.0033945792820304632, -0.002999173477292061, -0.0026037676725536585, -0.002208361867815256, -0.0018129560630768538, -0.0014175502583384514, -0.001022144453600049, -0.0006267386488616467, -0.00023133284412324429, 0.0001640738919377327, 0.0005594796966761351, 0.0009548855014145374, 0.0013502913061529398, 0.0017456971108913422, 0.0021411029156297445, 0.002536508720368147, 0.0029319145251065493, 0.0033273203298449516, 0.003722726134583354, 0.004118131939321756, 0.004513537511229515, 0.004908943548798561, 0.005304349586367607, 0.005699755158275366, 0.0060951607301831245, 0.0064905667677521706, 0.006885972805321217, 0.007281378377228975, 0.007676783949136734, 0.00807218998670578, 0.008467596024274826, 0.008863002061843872, 0.009258407168090343, 0.00965381320565939, 0.010049219243228436, 0.010444624349474907, 0.010840030387043953, 0.011235436424612999, 0.011630842462182045, 0.012026248499751091, 0.012421653605997562, 0.012817059643566608]}, "gradients/encoder.rnn.weight_ih_l0": {"_type": "histogram", "values": [1.0, 0.0, 0.0, 0.0, 0.0, 0.0, 0.0, 0.0, 0.0, 0.0, 1.0, 1.0, 0.0, 3.0, 4.0, 4.0, 5.0, 5.0, 6.0, 14.0, 21.0, 23.0, 22.0, 59.0, 71.0, 88.0, 139.0, 205.0, 261.0, 362.0, 493.0, 592.0, 836.0, 1188.0, 1980.0, 4380.0, 12911.0, 21281.0, 10954.0, 3798.0, 1738.0, 1080.0, 787.0, 529.0, 474.0, 320.0, 237.0, 182.0, 129.0, 94.0, 80.0, 41.0, 33.0, 41.0, 11.0, 13.0, 13.0, 9.0, 4.0, 4.0, 3.0, 4.0, 0.0, 2.0], "bins": [-0.011887903325259686, -0.011570215225219727, -0.011252526193857193, -0.010934838093817234, -0.010617149993777275, -0.010299460962414742, -0.009981772862374783, -0.009664084762334824, -0.00934639573097229, -0.009028707630932331, -0.008711018599569798, -0.008393330499529839, -0.00807564239948988, -0.007757953833788633, -0.007440265268087387, -0.007122577168047428, -0.006804889068007469, -0.006487200502306223, -0.006169512402266264, -0.005851823836565018, -0.005534135736525059, -0.0052164471708238125, -0.004898758605122566, -0.004581070505082607, -0.004263381939381361, -0.003945693373680115, -0.003628005273640156, -0.0033103167079389095, -0.002992628375068307, -0.0026749400421977043, -0.002357251476496458, -0.0020395631436258554, -0.0017218757420778275, -0.0014041874092072248, -0.0010864989599213004, -0.0007688105688430369, -0.00045112217776477337, -0.00013343384489417076, 0.00018425460439175367, 0.0005019430536776781, 0.0008196313865482807, 0.0011373197194188833, 0.0014550081687048078, 0.0017726966179907322, 0.002090384950861335, 0.0024080732837319374, 0.0027257618494331837, 0.0030434501823037863, 0.003361138515174389, 0.0036788268480449915, 0.003996515180915594, 0.00431420374661684, 0.004631891846656799, 0.004949580412358046, 0.005267268978059292, 0.005584957078099251, 0.005902645643800497, 0.006220334209501743, 0.006538022309541702, 0.0068557108752429485, 0.007173399440944195, 0.007491087540984154, 0.0078087761066854, 0.008126464672386646, 0.008444152772426605]}, "gradients/encoder.rnn.weight_hh_l0": {"_type": "histogram", "values": [1.0, 0.0, 0.0, 1.0, 0.0, 0.0, 1.0, 1.0, 0.0, 2.0, 2.0, 4.0, 3.0, 3.0, 6.0, 8.0, 17.0, 21.0, 36.0, 38.0, 64.0, 99.0, 154.0, 232.0, 346.0, 489.0, 682.0, 920.0, 1403.0, 2593.0, 11669.0, 29404.0, 10542.0, 2388.0, 1289.0, 960.0, 695.0, 442.0, 332.0, 237.0, 141.0, 109.0, 72.0, 45.0, 31.0, 14.0, 8.0, 11.0, 6.0, 6.0, 4.0, 1.0, 1.0, 1.0, 1.0, 0.0, 0.0, 0.0, 0.0, 0.0, 0.0, 0.0, 0.0, 1.0], "bins": [-0.002295278711244464, -0.0022223799023777246, -0.0021494808606803417, -0.0020765820518136024, -0.002003683242946863, -0.0019307842012494802, -0.001857885392382741, -0.0017849864671006799, -0.0017120875418186188, -0.0016391886165365577, -0.0015662896912544966, -0.0014933908823877573, -0.0014204919571056962, -0.001347593031823635, -0.0012746942229568958, -0.0012017952976748347, -0.0011288963723927736, -0.0010559974471107125, -0.0009830985218286514, -0.0009101997129619122, -0.0008373007876798511, -0.00076440186239779, -0.0006915029953233898, -0.0006186041282489896, -0.0005457052029669285, -0.00047280630678869784, -0.0003999074106104672, -0.00032700851443223655, -0.0002541096182540059, -0.00018121072207577527, -0.00010831182589754462, -3.5412958823144436e-05, 3.7485966458916664e-05, 0.00011038486263714731, 0.00018328375881537795, 0.0002561826549936086, 0.00032908155117183924, 0.0004019804473500699, 0.0004748793435283005, 0.0005477782106027007, 0.0006206771358847618, 0.0006935760611668229, 0.0007664749282412231, 0.0008393737953156233, 0.0009122727205976844, 0.0009851716458797455, 0.0010580704547464848, 0.0011309693800285459, 0.001203868305310607, 0.001276767230592668, 0.0013496661558747292, 0.0014225649647414684, 0.0014954638900235295, 0.0015683628153055906, 0.00164126162417233, 0.001714160549454391, 0.001787059474736452, 0.0018599584000185132, 0.0019328573253005743, 0.0020057561341673136, 0.0020786551758646965, 0.0021515539847314358, 0.002224452793598175, 0.0022973516024649143, 0.0023702506441622972]}, "gradients/encoder.rnn.weight_hh_l1": {"_type": "histogram", "values": [1.0, 0.0, 0.0, 0.0, 0.0, 1.0, 1.0, 2.0, 5.0, 3.0, 6.0, 10.0, 10.0, 16.0, 14.0, 22.0, 32.0, 40.0, 42.0, 78.0, 100.0, 133.0, 192.0, 266.0, 367.0, 463.0, 632.0, 802.0, 1100.0, 1372.0, 3207.0, 48061.0, 2891.0, 1385.0, 1100.0, 818.0, 601.0, 464.0, 323.0, 241.0, 187.0, 148.0, 104.0, 84.0, 56.0, 31.0, 32.0, 27.0, 23.0, 14.0, 6.0, 6.0, 7.0, 1.0, 3.0, 1.0, 1.0, 1.0, 0.0, 1.0, 0.0, 1.0, 0.0, 1.0], "bins": [-0.0039080367423594, -0.003783884458243847, -0.003659732174128294, -0.0035355796571820974, -0.0034114273730665445, -0.0032872750889509916, -0.003163122572004795, -0.003038970287889242, -0.0029148180037736893, -0.0027906657196581364, -0.0026665134355425835, -0.002542360918596387, -0.002418208634480834, -0.002294056350365281, -0.0021699038334190845, -0.0020457515493035316, -0.0019215992651879787, -0.0017974469810724258, -0.0016732945805415511, -0.0015491421800106764, -0.0014249898958951235, -0.0013008376117795706, -0.0011766852112486959, -0.0010525328107178211, -0.0009283805266022682, -0.0008042281842790544, -0.0006800758419558406, -0.0005559234996326268, -0.00043177115730941296, -0.00030761881498619914, -0.00018346647266298532, -5.931413033977151e-05, 6.4837746322155e-05, 0.00018899008864536881, 0.00031314243096858263, 0.00043729477329179645, 0.0005614471156150103, 0.0006855994579382241, 0.0008097518002614379, 0.0009339041425846517, 0.0010580564849078655, 0.0011822087690234184, 0.0013063611695542932, 0.0014305135700851679, 0.0015546658542007208, 0.0016788181383162737, 0.0018029705388471484, 0.0019271229393780231, 0.002051275223493576, 0.002175427507609129, 0.002299579791724682, 0.0024237323086708784, 0.0025478845927864313, 0.002672036876901984, 0.0027961893938481808, 0.0029203416779637337, 0.0030444939620792866, 0.0031686462461948395, 0.0032927985303103924, 0.003416951047256589, 0.003541103331372142, 0.0036652556154876947, 0.0037894081324338913, 0.003913560416549444, 0.004037712700664997]}, "gradients/encoder.rnn.bias_hh_l1": {"_type": "histogram", "values": [1.0, 0.0, 0.0, 0.0, 0.0, 0.0, 2.0, 0.0, 0.0, 0.0, 0.0, 1.0, 1.0, 0.0, 2.0, 3.0, 5.0, 1.0, 3.0, 2.0, 0.0, 6.0, 1.0, 1.0, 4.0, 4.0, 2.0, 2.0, 4.0, 3.0, 9.0, 51.0, 290.0, 50.0, 5.0, 2.0, 8.0, 5.0, 2.0, 5.0, 3.0, 3.0, 6.0, 5.0, 2.0, 1.0, 4.0, 3.0, 3.0, 0.0, 1.0, 0.0, 2.0, 1.0, 0.0, 1.0, 0.0, 0.0, 1.0, 0.0, 0.0, 0.0, 0.0, 1.0], "bins": [-0.044912464916706085, -0.04353649169206619, -0.0421605221927166, -0.040784548968076706, -0.03940857946872711, -0.03803260624408722, -0.036656636744737625, -0.03528066352009773, -0.03390469402074814, -0.032528720796108246, -0.03115275129675865, -0.02977677993476391, -0.028400808572769165, -0.02702483721077442, -0.02564886584877968, -0.024272892624139786, -0.022896921262145042, -0.0215209499001503, -0.020144978538155556, -0.018769007176160812, -0.01739303581416607, -0.016017064452171326, -0.014641092158854008, -0.013265120796859264, -0.011889149434864521, -0.010513178072869778, -0.009137206710875034, -0.007761234883219004, -0.00638526352122426, -0.005009292159229517, -0.0036333203315734863, -0.002257348969578743, -0.0008813776075839996, 0.0004945938708260655, 0.0018705653492361307, 0.0032465369440615177, 0.004622508306056261, 0.005998479668051004, 0.007374451495707035, 0.008750422857701778, 0.010126394219696522, 0.011502365581691265, 0.012878336943686008, 0.014254309237003326, 0.01563028059899807, 0.017006251960992813, 0.018382223322987556, 0.0197581946849823, 0.021134166046977043, 0.022510137408971786, 0.02388610877096653, 0.025262080132961273, 0.026638051494956017, 0.02801402285695076, 0.029389996081590652, 0.030765965580940247, 0.03214193880558014, 0.03351791203022003, 0.034893881529569626, 0.03626985475420952, 0.03764582425355911, 0.039021797478199005, 0.0403977669775486, 0.04177374020218849, 0.043149709701538086]}, "gradients/encoder.rnn.weight_ih_l1": {"_type": "histogram", "values": [1.0, 0.0, 0.0, 0.0, 1.0, 0.0, 1.0, 0.0, 0.0, 3.0, 0.0, 0.0, 3.0, 3.0, 3.0, 3.0, 6.0, 7.0, 15.0, 19.0, 29.0, 37.0, 61.0, 82.0, 126.0, 192.0, 262.0, 339.0, 491.0, 683.0, 940.0, 1166.0, 1352.0, 2357.0, 46879.0, 4340.0, 1373.0, 1209.0, 982.0, 742.0, 556.0, 382.0, 260.0, 184.0, 126.0, 101.0, 73.0, 51.0, 26.0, 24.0, 12.0, 14.0, 7.0, 3.0, 5.0, 0.0, 1.0, 0.0, 0.0, 0.0, 1.0, 0.0, 1.0, 2.0], "bins": [-0.009832062758505344, -0.009547977708280087, -0.009263891726732254, -0.008979806676506996, -0.008695721626281738, -0.00841163657605648, -0.008127550594508648, -0.00784346554428339, -0.007559380028396845, -0.0072752945125103, -0.006991209462285042, -0.006707123946398497, -0.0064230384305119514, -0.006138953380286694, -0.005854867864400148, -0.005570782348513603, -0.005286697298288345, -0.0050026117824018, -0.004718526732176542, -0.004434441216289997, -0.004150356166064739, -0.003866270650178194, -0.003582185134291649, -0.0032980998512357473, -0.003014014568179846, -0.0027299292851239443, -0.0024458440020680428, -0.0021617584861814976, -0.001877673203125596, -0.0015935879200696945, -0.0013095025205984712, -0.0010254171211272478, -0.0007413318380713463, -0.00045724649680778384, -0.0001731611555442214, 0.00011092418571934104, 0.0003950095269829035, 0.000679094810038805, 0.0009631802095100284, 0.0012472656089812517, 0.0015313508920371532, 0.0018154361750930548, 0.0020995214581489563, 0.0023836069740355015, 0.002667692257091403, 0.0029517775401473045, 0.0032358630560338497, 0.0035199483390897512, 0.0038040336221456528, 0.004088119138032198, 0.004372204188257456, 0.004656289704144001, 0.004940374754369259, 0.005224460270255804, 0.005508545786142349, 0.005792630836367607, 0.006076716352254152, 0.0063608018681406975, 0.006644886918365955, 0.0069289724342525005, 0.007213057950139046, 0.007497143000364304, 0.007781228516250849, 0.008065314032137394, 0.008349399082362652]}, "gradients/encoder.rnn.bias_ih_l0": {"_type": "histogram", "values": [1.0, 0.0, 0.0, 0.0, 0.0, 0.0, 1.0, 0.0, 0.0, 0.0, 1.0, 0.0, 1.0, 0.0, 0.0, 0.0, 2.0, 1.0, 1.0, 3.0, 1.0, 3.0, 3.0, 3.0, 4.0, 2.0, 9.0, 4.0, 4.0, 4.0, 4.0, 11.0, 21.0, 113.0, 153.0, 79.0, 32.0, 10.0, 4.0, 4.0, 1.0, 10.0, 4.0, 0.0, 1.0, 1.0, 1.0, 2.0, 0.0, 1.0, 4.0, 1.0, 2.0, 2.0, 0.0, 0.0, 1.0, 1.0, 0.0, 0.0, 0.0, 0.0, 0.0, 1.0], "bins": [-0.012433022260665894, -0.012075058184564114, -0.011717095039784908, -0.011359130963683128, -0.011001166887581348, -0.010643203742802143, -0.010285239666700363, -0.009927276521921158, -0.009569312445819378, -0.009211348369717598, -0.008853385224938393, -0.008495421148836613, -0.008137457072734833, -0.0077794939279556274, -0.0074215298518538475, -0.007063566241413355, -0.006705602165311575, -0.006347638554871082, -0.005989674478769302, -0.00563171086832881, -0.005273747257888317, -0.004915783181786537, -0.0045578195713460445, -0.004199855960905552, -0.0038418921176344156, -0.0034839282743632793, -0.0031259646639227867, -0.0027680008206516504, -0.002410036977380514, -0.0020520733669400215, -0.0016941095236688852, -0.0013361459132283926, -0.0009781820699572563, -0.0006202183431014419, -0.0002622545580379665, 9.570922702550888e-05, 0.00045367295388132334, 0.0008116366807371378, 0.001169600524008274, 0.0015275641344487667, 0.001885527977719903, 0.0022434918209910393, 0.002601455431431532, 0.002959419274702668, 0.0033173831179738045, 0.003675346728414297, 0.00403331033885479, 0.00439127441495657, 0.004749238025397062, 0.005107201635837555, 0.005465165711939335, 0.0058231293223798275, 0.00618109293282032, 0.0065390570089221, 0.006897020619362593, 0.007254984229803085, 0.007612948305904865, 0.007970912382006645, 0.00832887552678585, 0.00868683960288763, 0.00904480367898941, 0.009402766823768616, 0.009760730899870396, 0.010118694975972176, 0.010476658120751381]}, "gradients/encoder.rnn.bias_ih_l1": {"_type": "histogram", "values": [1.0, 0.0, 0.0, 0.0, 0.0, 0.0, 2.0, 0.0, 0.0, 0.0, 0.0, 1.0, 1.0, 0.0, 2.0, 3.0, 5.0, 1.0, 3.0, 2.0, 0.0, 6.0, 1.0, 1.0, 4.0, 4.0, 2.0, 2.0, 4.0, 3.0, 9.0, 51.0, 290.0, 50.0, 5.0, 2.0, 8.0, 5.0, 2.0, 5.0, 3.0, 3.0, 6.0, 5.0, 2.0, 1.0, 4.0, 3.0, 3.0, 0.0, 1.0, 0.0, 2.0, 1.0, 0.0, 1.0, 0.0, 0.0, 1.0, 0.0, 0.0, 0.0, 0.0, 1.0], "bins": [-0.044912464916706085, -0.04353649169206619, -0.0421605221927166, -0.040784548968076706, -0.03940857946872711, -0.03803260624408722, -0.036656636744737625, -0.03528066352009773, -0.03390469402074814, -0.032528720796108246, -0.03115275129675865, -0.02977677993476391, -0.028400808572769165, -0.02702483721077442, -0.02564886584877968, -0.024272892624139786, -0.022896921262145042, -0.0215209499001503, -0.020144978538155556, -0.018769007176160812, -0.01739303581416607, -0.016017064452171326, -0.014641092158854008, -0.013265120796859264, -0.011889149434864521, -0.010513178072869778, -0.009137206710875034, -0.007761234883219004, -0.00638526352122426, -0.005009292159229517, -0.0036333203315734863, -0.002257348969578743, -0.0008813776075839996, 0.0004945938708260655, 0.0018705653492361307, 0.0032465369440615177, 0.004622508306056261, 0.005998479668051004, 0.007374451495707035, 0.008750422857701778, 0.010126394219696522, 0.011502365581691265, 0.012878336943686008, 0.014254309237003326, 0.01563028059899807, 0.017006251960992813, 0.018382223322987556, 0.0197581946849823, 0.021134166046977043, 0.022510137408971786, 0.02388610877096653, 0.025262080132961273, 0.026638051494956017, 0.02801402285695076, 0.029389996081590652, 0.030765965580940247, 0.03214193880558014, 0.03351791203022003, 0.034893881529569626, 0.03626985475420952, 0.03764582425355911, 0.039021797478199005, 0.0403977669775486, 0.04177374020218849, 0.043149709701538086]}, "gradients/encoder.rnn.bias_hh_l0": {"_type": "histogram", "values": [1.0, 0.0, 0.0, 0.0, 0.0, 0.0, 1.0, 0.0, 0.0, 0.0, 1.0, 0.0, 1.0, 0.0, 0.0, 0.0, 2.0, 1.0, 1.0, 3.0, 1.0, 3.0, 3.0, 3.0, 4.0, 2.0, 9.0, 4.0, 4.0, 4.0, 4.0, 11.0, 21.0, 113.0, 153.0, 79.0, 32.0, 10.0, 4.0, 4.0, 1.0, 10.0, 4.0, 0.0, 1.0, 1.0, 1.0, 2.0, 0.0, 1.0, 4.0, 1.0, 2.0, 2.0, 0.0, 0.0, 1.0, 1.0, 0.0, 0.0, 0.0, 0.0, 0.0, 1.0], "bins": [-0.012433022260665894, -0.012075058184564114, -0.011717095039784908, -0.011359130963683128, -0.011001166887581348, -0.010643203742802143, -0.010285239666700363, -0.009927276521921158, -0.009569312445819378, -0.009211348369717598, -0.008853385224938393, -0.008495421148836613, -0.008137457072734833, -0.0077794939279556274, -0.0074215298518538475, -0.007063566241413355, -0.006705602165311575, -0.006347638554871082, -0.005989674478769302, -0.00563171086832881, -0.005273747257888317, -0.004915783181786537, -0.0045578195713460445, -0.004199855960905552, -0.0038418921176344156, -0.0034839282743632793, -0.0031259646639227867, -0.0027680008206516504, -0.002410036977380514, -0.0020520733669400215, -0.0016941095236688852, -0.0013361459132283926, -0.0009781820699572563, -0.0006202183431014419, -0.0002622545580379665, 9.570922702550888e-05, 0.00045367295388132334, 0.0008116366807371378, 0.001169600524008274, 0.0015275641344487667, 0.001885527977719903, 0.0022434918209910393, 0.002601455431431532, 0.002959419274702668, 0.0033173831179738045, 0.003675346728414297, 0.00403331033885479, 0.00439127441495657, 0.004749238025397062, 0.005107201635837555, 0.005465165711939335, 0.0058231293223798275, 0.00618109293282032, 0.0065390570089221, 0.006897020619362593, 0.007254984229803085, 0.007612948305904865, 0.007970912382006645, 0.00832887552678585, 0.00868683960288763, 0.00904480367898941, 0.009402766823768616, 0.009760730899870396, 0.010118694975972176, 0.010476658120751381]}, "gradients/decoder.lt.weight": {"_type": "histogram", "values": [1.0, 1.0, 1.0, 0.0, 1.0, 1.0, 1.0, 2.0, 1.0, 4.0, 4.0, 3.0, 8.0, 2.0, 7.0, 10.0, 22.0, 17.0, 41.0, 50.0, 78.0, 125.0, 215.0, 438.0, 815.0, 1461.0, 2302.0, 2857228.0, 2982.0, 1544.0, 976.0, 558.0, 297.0, 164.0, 81.0, 53.0, 41.0, 21.0, 18.0, 13.0, 11.0, 3.0, 4.0, 2.0, 6.0, 5.0, 1.0, 2.0, 3.0, 2.0, 2.0, 0.0, 0.0, 2.0, 1.0, 0.0, 0.0, 0.0, 0.0, 0.0, 0.0, 0.0, 0.0, 1.0], "bins": [-0.010009248740971088, -0.00964714027941227, -0.009285030886530876, -0.008922922424972057, -0.008560813032090664, -0.008198704570531845, -0.007836595177650452, -0.007474486716091633, -0.007112377323210239, -0.006750268395990133, -0.006388159468770027, -0.006026050541549921, -0.005663941614329815, -0.005301832687109709, -0.004939723759889603, -0.004577615298330784, -0.004215506371110678, -0.0038533974438905716, -0.0034912885166704655, -0.0031291795894503593, -0.0027670706622302532, -0.002404961735010147, -0.0020428530406206846, -0.0016807441134005785, -0.0013186351861804724, -0.0009565262589603662, -0.000594417389947921, -0.00023230852093547583, 0.0001298004062846303, 0.0004919093335047364, 0.0008540181443095207, 0.0012161270715296268, 0.001578235998749733, 0.001940344925969839, 0.0023024538531899452, 0.0026645627804100513, 0.0030266717076301575, 0.0033887806348502636, 0.003750889329239726, 0.0041129980236291885, 0.004475107416510582, 0.004837216343730688, 0.005199325270950794, 0.0055614341981709, 0.0059235431253910065, 0.006285652052611113, 0.006647760979831219, 0.0070098694413900375, 0.007371978368610144, 0.00773408729583025, 0.008096195757389069, 0.008458305150270462, 0.00882041361182928, 0.009182523004710674, 0.009544631466269493, 0.009906740859150887, 0.010268849320709705, 0.010630957782268524, 0.010993067175149918, 0.011355175636708736, 0.01171728502959013, 0.012079393491148949, 0.012441502884030342, 0.012803611345589161, 0.013165720738470554]}, "exs/valid": 5738, "accuracy/valid": 0.0, "f1/valid": 0.13148361085804253, "bleu-4/valid": 0.0024182407091411892, "clen/valid": 39.51673056814221, "ctrunc/valid": 0.16817706517950506, "ctrunclen/valid": 3.5921924015336355, "llen/valid": 15.653014987800628, "ltrunc/valid": 0.0020913210177762286, "ltrunclen/valid": 0.024573021958870688, "loss/valid": 5.759534609445927, "ppl/valid": 317.20067236486886, "token_acc/valid": 0.2477697488737232, "token_em/valid": 0.0, "exps/valid": 79.54487032098488, "ltpb/valid": 249.1, "ltps/valid": 1243.1641645148154, "ctpb/valid": 572.5972222222222, "ctps/valid": 2857.618113379246, "tpb/valid": 821.6972222222222, "tps/valid": 4100.782736486372, "lr/valid": 1.0, "gpu_mem/valid": 0.0028042872388615477, "total_train_updates/valid": 4573, "exs/test": 5259, "accuracy/test": 0.0, "f1/test": 0.13115880071504757, "bleu-4/test": 0.0024196690336506996, "clen/test": 42.708309564556, "ctrunc/test": 0.19604487545160676, "ctrunclen/test": 4.891043924700513, "llen/test": 15.851682829435253, "ltrunc/test": 0.003612854154782278, "ltrunclen/test": 0.049819357292260884, "loss/test": 5.777360306982845, "ppl/test": 322.90569252486824, "token_acc/test": 0.24191956872277443, "token_em/test": 0.0, "exps/test": 84.49985908290888, "ltpb/test": 252.58966565349544, "ltps/test": 1335.2569757920096, "ctpb/test": 604.5015197568389, "ctps/test": 3195.559113967124, "tpb/test": 857.0911854103343, "tps/test": 4530.816647310661, "lr/test": 1.0, "gpu_mem/test": 0.002829479757691156, "total_train_updates/test": 4573}